<?xml version="1.0"?>
<opencv_storage>
<cascade>
  <stageType>BOOST</stageType>
  <featureType>HAAR</featureType>
  <height>20</height>
  <width>20</width>
  <stageParams>
    <boostType>GAB</boostType>
    <minHitRate>9.9900001287460327e-01</minHitRate>
    <maxFalseAlarm>5.0000000745058060e-02</maxFalseAlarm>
    <weightTrimRate>9.4999999999999996e-01</weightTrimRate>
    <maxDepth>1</maxDepth>
    <maxWeakCount>100</maxWeakCount></stageParams>
  <featureParams>
    <maxCatCount>0</maxCatCount>
    <featSize>1</featSize>
    <mode>ALL</mode></featureParams>
  <stageNum>3</stageNum>
  <stages>
    <!-- stage 0 -->
    <_>
      <maxWeakCount>7</maxWeakCount>
      <stageThreshold>-4.0145847201347351e-01</stageThreshold>
      <weakClassifiers>
        <_>
          <internalNodes>
            0 -1 10 1.4366003684699535e-02</internalNodes>
          <leafValues>
            -6.6247755289077759e-01 8.3295708894729614e-01</leafValues></_>
        <_>
          <internalNodes>
            0 -1 4 3.9862026460468769e-03</internalNodes>
          <leafValues>
            -5.4679626226425171e-01 9.2590159177780151e-01</leafValues></_>
        <_>
          <internalNodes>
            0 -1 0 3.5730894654989243e-02</internalNodes>
          <leafValues>
            -9.8641300201416016e-01 5.6896275281906128e-01</leafValues></_>
        <_>
          <internalNodes>
            0 -1 8 -6.4297122880816460e-03</internalNodes>
          <leafValues>
            9.7853529453277588e-01 -5.0457173585891724e-01</leafValues></_>
        <_>
          <internalNodes>
            0 -1 9 -1.0846590623259544e-02</internalNodes>
          <leafValues>
            9.9203646183013916e-01 -5.2583974599838257e-01</leafValues></_>
        <_>
          <internalNodes>
            0 -1 6 -1.3958973810076714e-02</internalNodes>
          <leafValues>
            7.1017259359359741e-01 -7.0829933881759644e-01</leafValues></_>
        <_>
          <internalNodes>
            0 -1 16 -2.2517238903674297e-05</internalNodes>
          <leafValues>
            -1. 5.5909150838851929e-01</leafValues></_></weakClassifiers></_>
    <!-- stage 1 -->
    <_>
      <maxWeakCount>6</maxWeakCount>
      <stageThreshold>7.3334917426109314e-02</stageThreshold>
      <weakClassifiers>
        <_>
          <internalNodes>
            0 -1 16 1.9320923456689343e-05</internalNodes>
          <leafValues>
            5.4798763990402222e-01 -1.</leafValues></_>
        <_>
          <internalNodes>
            0 -1 3 1.9691929221153259e-02</internalNodes>
          <leafValues>
            -6.3757878541946411e-01 9.1433173418045044e-01</leafValues></_>
        <_>
          <internalNodes>
            0 -1 5 4.0236078202724457e-03</internalNodes>
          <leafValues>
            -5.1219409704208374e-01 8.7544369697570801e-01</leafValues></_>
        <_>
          <internalNodes>
            0 -1 1 -2.2953925654292107e-02</internalNodes>
          <leafValues>
            5.2648615837097168e-01 -9.1020673513412476e-01</leafValues></_>
        <_>
          <internalNodes>
            0 -1 7 2.9055811464786530e-03</internalNodes>
          <leafValues>
            -6.4493787288665771e-01 6.9310885667800903e-01</leafValues></_>
        <_>
          <internalNodes>
            0 -1 14 -6.1419657431542873e-03</internalNodes>
          <leafValues>
            9.8959380388259888e-01 -4.9541980028152466e-01</leafValues></_></weakClassifiers></_>
    <!-- stage 2 -->
    <_>
      <maxWeakCount>6</maxWeakCount>
      <stageThreshold>-1.0079842805862427e-01</stageThreshold>
      <weakClassifiers>
        <_>
          <internalNodes>
            0 -1 2 3.3328291028738022e-02</internalNodes>
          <leafValues>
            5.9333330392837524e-01 -8.8999998569488525e-01</leafValues></_>
        <_>
          <internalNodes>
            0 -1 12 -5.9508569538593292e-03</internalNodes>
          <leafValues>
            9.5831555128097534e-01 -5.5786746740341187e-01</leafValues></_>
        <_>
          <internalNodes>
            0 -1 15 7.7940616756677628e-03</internalNodes>
          <leafValues>
            -9.5814967155456543e-01 5.8272778987884521e-01</leafValues></_>
        <_>
          <internalNodes>
            0 -1 17 -2.0486981156864204e-05</internalNodes>
          <leafValues>
            -9.9108070135116577e-01 4.2014929652214050e-01</leafValues></_>
        <_>
          <internalNodes>
            0 -1 13 -6.5211756154894829e-03</internalNodes>
          <leafValues>
            9.1779762506484985e-01 -5.6000667810440063e-01</leafValues></_>
        <_>
          <internalNodes>
            0 -1 11 -6.3909329473972321e-03</internalNodes>
          <leafValues>
            9.7010052204132080e-01 -5.1606148481369019e-01</leafValues></_></weakClassifiers></_></stages>
  <features>
    <_>
      <rects>
        <_>
          0 0 20 20 -1.</_>
        <_>
          5 0 10 20 2.</_></rects>
      <tilted>0</tilted></_>
    <_>
      <rects>
        <_>
          0 14 20 6 -1.</_>
        <_>
          0 17 20 3 2.</_></rects>
      <tilted>0</tilted></_>
    <_>
      <rects>
        <_>
          2 4 16 12 -1.</_>
        <_>
          6 4 8 12 2.</_></rects>
      <tilted>0</tilted></_>
    <_>
      <rects>
        <_>
          5 11 3 3 -1.</_>
        <_>
          6 12 1 1 9.</_></rects>
      <tilted>0</tilted></_>
    <_>
      <rects>
        <_>
          6 8 3 1 -1.</_>
        <_>
          7 8 1 1 3.</_></rects>
      <tilted>0</tilted></_>
    <_>
      <rects>
        <_>
          7 6 3 1 -1.</_>
        <_>
          8 6 1 1 3.</_></rects>
      <tilted>0</tilted></_>
    <_>
      <rects>
        <_>
          7 9 6 3 -1.</_>
        <_>
          9 10 2 1 9.</_></rects>
      <tilted>0</tilted></_>
    <_>
      <rects>
        <_>
          7 10 4 2 -1.</_>
        <_>
          7 10 2 1 2.</_>
        <_>
          9 11 2 1 2.</_></rects>
      <tilted>0</tilted></_>
    <_>
      <rects>
        <_>
          8 6 3 1 -1.</_>
        <_>
          9 6 1 1 3.</_></rects>
      <tilted>0</tilted></_>
    <_>
      <rects>
        <_>
          8 13 3 3 -1.</_>
        <_>
          9 13 1 3 3.</_></rects>
      <tilted>0</tilted></_>
    <_>
      <rects>
        <_>
          9 7 3 3 -1.</_>
        <_>
          10 8 1 1 9.</_></rects>
      <tilted>0</tilted></_>
    <_>
      <rects>
        <_>
          9 12 3 1 -1.</_>
        <_>
          10 12 1 1 3.</_></rects>
      <tilted>0</tilted></_>
    <_>
      <rects>
        <_>
          11 6 3 1 -1.</_>
        <_>
          12 6 1 1 3.</_></rects>
      <tilted>0</tilted></_>
    <_>
      <rects>
        <_>
          11 13 3 1 -1.</_>
        <_>
          12 13 1 1 3.</_></rects>
      <tilted>0</tilted></_>
    <_>
      <rects>
        <_>
          12 8 1 3 -1.</_>
        <_>
          12 9 1 1 3.</_></rects>
      <tilted>0</tilted></_>
    <_>
      <rects>
        <_>
          13 0 7 6 -1.</_>
        <_>
          13 3 7 3 2.</_></rects>
      <tilted>0</tilted></_>
    <_>
      <rects>
        <_>
          19 0 1 2 -1.</_>
        <_>
          19 1 1 1 2.</_></rects>
      <tilted>0</tilted></_>
    <_>
      <rects>
        <_>
          19 18 1 2 -1.</_>
        <_>
          19 19 1 1 2.</_></rects>
      <tilted>0</tilted></_></features></cascade>
</opencv_storage>
