<?xml version="1.0"?>
<opencv_storage>
<stage2>
  <maxWeakCount>6</maxWeakCount>
  <stageThreshold>1.1337016522884369e-01</stageThreshold>
  <weakClassifiers>
    <_>
      <internalNodes>
        0 -1 41632 -2.5234382599592209e-02</internalNodes>
      <leafValues>
        -8.9629632234573364e-01 6.1008405685424805e-01</leafValues></_>
    <_>
      <internalNodes>
        0 -1 61781 6.3714669086039066e-03</internalNodes>
      <leafValues>
        -5.0013548135757446e-01 9.9138319492340088e-01</leafValues></_>
    <_>
      <internalNodes>
        0 -1 60166 -6.2055322341620922e-03</internalNodes>
      <leafValues>
        9.8993539810180664e-01 -4.8931732773780823e-01</leafValues></_>
    <_>
      <internalNodes>
        0 -1 38640 2.0175050944089890e-02</internalNodes>
      <leafValues>
        5.7117122411727905e-01 -9.4270622730255127e-01</leafValues></_>
    <_>
      <internalNodes>
        0 -1 90021 4.7967131249606609e-03</internalNodes>
      <leafValues>
        -5.7466447353363037e-01 8.7200218439102173e-01</leafValues></_>
    <_>
      <internalNodes>
        0 -1 113 -1.0002763883676380e-04</internalNodes>
      <leafValues>
        -9.7325038909912109e-01 5.5594587326049805e-01</leafValues></_></weakClassifiers></stage2>
</opencv_storage>
